LayerSizes: 784 128 64 10
Layer 1 Weights:
-0.031836629176388 0.081711217459439 -0.127172733069542 -0.062581646834580 0.081428709855083 0.069127603236624 0.005122501705224 0.222802644595491 0.010018485247593 0.084832389230099 -0.021151326915866 0.061759551926706 0.116149907357522 0.004140073960910 -0.140299867185173 0.103207625193057 0.049890709789260 0.043760544810456 -0.011525889778051 0.059604954191081 0.076149762605009 0.008620300656895 -0.014158496152844 0.049483924302717 0.252033347750050 -0.022600099815398 0.050951307117730 0.205004978656679 0.028401433231777 0.118449690978594 -0.085728663628336 0.060232387919157 -0.067681518834179 -0.010685278305106 0.095638399162274 0.061446206397556 0.065298873661070 -0.069800271776649 0.033341275173556 0.173877200653605 0.030140791967190 0.132106539515960 0.027949769184589 -0.057906420752218 0.038103792558996 0.102363406971360 0.005992346861001 0.142613630653766 0.178392704343288 0.071870956877830 0.049004411066844 0.142735618775621 -0.023567921436857 0.089873677850149 0.135963622825991 -0.083238646751591 -0.114017214475132 -0.102706024732008 0.160494441883089 0.142977408012355 0.043792830148528 0.223870892599543 0.034192882590614 0.107950730351378 -0.090827531334489 0.031999624740015 -0.072431549845652 -0.014974921504654 0.207626715530796 0.096484764697266 0.124395356215061 0.179651723631647 0.015638354320921 -0.023652258634088 0.118483380243398 0.011722719137994 0.045152516953015 0.051743054501918 -0.070557963369323 -0.018071912505309 -0.049269080763300 0.003265663786551 -0.013900938268260 0.014436544975265 -0.086900148465577 -0.083597333802263 -0.015666210499931 0.009834039635636 0.132883140846361 0.045288845152403 0.004863819096879 0.040504066968534 0.011789300126608 0.087005587212114 0.014935109674755 0.093255566266704 -0.089695445152108 0.206640599339040 -0.095734768869240 -0.012160158186115 0.056092524203651 0.173494403499382 -0.056814386398672 0.052403586346157 0.065464330245263 0.126665154665331 -0.017384806226626 -0.134235284937251 0.117821838761431 0.067288288667024 0.132427340071979 0.111983443944469 -0.072912040923422 -0.135469201323889 0.121726971409160 0.059154181787161 0.018771881908347 -0.066311914725570 0.069921909262890 0.225682898918022 0.064592593087479 0.039453227211749 0.059497246744297 0.094949029137294 -0.053506213139048 0.113440851768314 0.097270515128932 0.047271126570468 0.077479651298245 -0.122553773723415 -0.109145295893237 -0.113046148796091 -0.008625218739247 -0.090141829260794 0.179641624977638 0.211473620672204 0.039760718309668 -0.004726504003533 0.044667649372106 0.113591210163373 -0.009092712239686 0.258888652840998 0.000250551636092 -0.132559867108447 0.100566056119517 -0.004865156235776 -0.009555900267440 -0.013831338375332 0.141951778600090 -0.024311344463736 0.040958889218886 0.039900101394789 -0.087885740927911 0.008090068754560 -0.129671541173440 0.170903849221811 0.075142338719705 0.144506310569330 0.043823370006350 -0.018280833181457 0.170357102495082 0.027800178904054 0.137014002229274 0.071607456364801 0.001721554320648 -0.132282208329855 0.109201850108562 0.086632812968103 -0.138216419328212 -0.039446322432408 0.020084716050771 0.154061241537324 0.060243555127155 0.114020231547496 -0.051982759980705 -0.035823917745941 0.093343098137882 0.005795014604418 0.049217742753027 -0.048991629151803 -0.097444915233791 0.133514012262978 -0.002947747019597 -0.115046831225086 0.025654389998989 0.092585047231470 0.010035521988158 -0.083682321948703 0.115513578001301 0.091207632092782 -0.001129629857863 0.024474904489565 0.119005092096685 -0.003744164385472 0.022634482086404 0.202326322254449 -0.002177101143208 0.084567598081734 -0.005902316777439 0.175026718798416 0.014765991483395 -0.136766018925328 0.007028276718827 -0.098311794947652 0.123577174423314 0.023029714980190 0.167508426076209 0.112674175956125 -0.028330140021743 0.181656776665447 0.179103724948965 0.141395929607211 0.000510825949566 0.060416218317959 -0.012342833215716 0.047314206649437 -0.160836914619951 -0.190869177104776 -0.129331214075009 -0.022731558365520 0.007551809134328 -0.047209371083678 0.044085378776710 0.145517819819452 0.062812711716017 0.093477374544008 0.095612662748229 -0.086678550893206 0.003494497726497 -0.085721590666144 -0.025662474181151 0.173286435835474 -0.005486471072575 0.010424493740498 0.036633483650218 -0.107978433093790 -0.020637438377076 -0.001762339752097 0.111117328335670 0.128059055530072 0.213855327158557 -0.017416884599212 -0.076772857138123 0.110405124758754 -0.077052426882471 0.020122361800654 -0.010523478627292 -0.137248570079688 -0.074898621793524 0.059632524883172 -0.062992142795845 0.190272134173198 -0.053688302656345 0.200517439959041 -0.124079551185908 0.020442668619730 0.126358513441623 0.081416476612050 -0.045415539867899 0.030472510904840 -0.134024967074739 0.034359898279699 -0.015035565700412 0.019763307250571 0.038812116782390 0.096694698624985 0.050500646025189 0.008606140632689 0.023883175380544 0.094834038123103 0.075723340204768 -0.041901920308821 0.039900160867582 0.102384680503332 0.088735229961979 0.015097427284703 -0.111940388379202 0.031651326101212 -0.013609485965188 -0.045725996034463 0.016673288469964 0.186946105688687 0.036239200334392 -0.093120615318619 -0.124286788059743 -0.145064393673753 0.148047704758765 -0.124306631127864 0.107120598054634 0.108267766747061 -0.068501602496165 0.089371280958781 0.156643463629558 0.228830378168274 0.154411113315766 -0.017262762513928 -0.084153923707640 0.041002540701027 -0.068939088815745 -0.052368176232046 -0.089225720938443 0.042660049124171 0.157500890067059 0.164351627785544 0.028237809570555 0.045626110115816 0.206176617186366 0.096611818043012 -0.017878324701927 0.179404555238105 0.258448749163714 0.048940183480544 -0.004802417831117 -0.030882009069763 0.080189716960330 -0.025988450281001 -0.057929684380854 0.005186637358558 -0.011846663288215 0.251026934594498 0.084079508015274 0.090216878036876 0.109999292877444 0.170652124593461 0.021255805914030 0.029942247632926 0.112646307216497 0.019749541122358 0.056927471623779 0.013978759056574 0.242464062661684 0.136924275005200 0.017397447257464 0.093135985042952 0.023716141215782 -0.042949899562374 0.056469183458200 -0.157532069976239 0.182212651736388 -0.020550746341048 0.120727790681862 0.024843058798647 0.021990459434053 0.047706994566316 0.223306028660324 0.063805662780362 0.076948422943140 0.153214753775837 -0.013850807610346 -0.056669370949624 0.059200871020564 -0.154215024486817 0.106865567434102 -0.089717015884024 0.242812978668834 -0.024989505176347 0.158056437527009 0.015068689392681 0.095595782303625 0.035509917877486 -0.060806334782529 0.022944488794547 0.055428483641715 -0.131864693301769 0.049704176428145 0.117637206878199 -0.019488644846732 0.155254971437891 -0.057867192333441 0.144970128837682 0.088102165526165 0.061147320708507 -0.021204674803798 0.025346677012337 0.153625022651971 0.011658061041361 0.085704051108977 -0.008823973912412 -0.038117379126873 -0.114930819313903 0.125066304893005 -0.014918947230616 -0.031631258210701 0.125624979732733 0.032112779549983 -0.060398756602662 0.078743216493706 -0.076314729688272 0.109712692923814 0.114230106311680 0.042823264825748 0.065523606850234 -0.071759901310859 0.021566100852603 0.041853655348623 0.090755762468020 0.090645339103416 -0.013735285146941 0.092690444160323 0.065005081233063 0.103235460772711 0.136118119835767 0.067137727529287 0.085433834465385 0.154520450889660 0.048568257380962 -0.003717257585496 -0.039414682793473 0.205882577721354 0.154107514472940 -0.067622974823274 -0.017906003033484 -0.079539819370348 -0.222851042876157 0.131709012620267 -0.088690804262973 0.096913937260070 0.171788554891358 0.032691918541251 0.059628058020075 -0.039576678002418 -0.041091960759675 -0.076192906650726 0.085606906925566 0.273662326584651 0.075409074248441 -0.087346577362067 0.192942541869099 0.018152659867094 -0.058172537652525 0.024891508564645 0.029664095051766 0.038480330334628 0.050988173365322 -0.090979831468557 0.058065168835447 0.002964990800777 0.076872322962021 0.100512224274382 -0.148184184352611 0.126832985979777 0.009097809877351 -0.002889088037208 0.216435917572964 0.144831998621728 -0.111946475448356 0.013691936155711 -0.001811311363174 0.134782583614537 0.030025153521972 0.087231176884530 0.181227319266807 0.090546897499085 -0.034854637531042 0.197829628792495 -0.075264272058410 -0.068395127768531 0.057449000882385 -0.076219062569517 0.091047600549603 0.245007767026456 0.073158399790766 -0.035746392503537 0.020708419475670 -0.012128108241114 0.081247260301774 0.047835523961670 0.158254222424944 0.194312150701951 0.115087366621882 -0.000429061163827 0.033204141000679 0.165733666185943 0.010167731982529 -0.004120906200465 -0.009065424432272 0.035424597443314 0.023509374625673 0.041382990290963 0.132367827886675 0.137308052349110 0.146239861080261 -0.000968070737740 0.144186764595005 0.088937278585316 -0.124454972750695 0.058803626594124 0.040296343480357 -0.079422687179737 0.027518363572796 0.186367411348570 0.059653999389978 0.132712867351318 0.126920641725233 0.106432386656540 0.018596719702654 0.137743326209961 0.000480232981146 0.169342803850496 -0.135577465470463 -0.167450921312075 0.041501340230797 0.148746557000201 0.015175603269084 0.078736183640065 0.029118174450385 0.023879718446330 0.098500023917034 0.182234417823352 0.070734027539681 0.016337964043878 0.185344982877756 -0.029257857689365 0.230565542368932 0.072999382590006 0.091447863663439 0.073794816194895 0.010163678633943 0.019124903919148 0.034341301770073 0.061235310747776 0.248244572955354 0.116336016471179 0.269450323707994 0.059440687930587 0.132610172652377 0.036245259994466 -0.030361646304442 0.204993277220530 0.043596957708797 0.081253888412845 0.057230528022024 0.097248112428235 -0.024788589250741 0.004556966027681 0.186215138720562 -0.140998449038415 0.084768607616775 0.185411066491543 0.001565162284288 -0.006934565248462 0.101516395267253 0.003907845600617 -0.041334867100218 -0.046840609417309 -0.072404492030801 -0.101508394146277 0.007422778172543 -0.099617045463585 0.236458433827510 0.177979089793155 0.106752352666902 0.117377292723795 0.124230333794734 -0.041367724536914 -0.172362980869268 -0.015976674516616 0.029491512381987 -0.054691962854455 -0.044536440778932 -0.029700455434960 -0.111888030896073 0.013363410924994 0.057991249232091 0.011926995640366 0.054298535251025 0.181978735933638 0.167466182276712 0.065409439205352 0.009842278754106 0.078985358985950 0.138932532510294 0.065899845429426 0.104576098845086 -0.087647125209773 0.066966044261057 -0.021698815315684 0.054447209330118 0.222157619320597 0.096291676785260 0.039923801424035 0.063532378632589 -0.297649607740025 0.080468959370500 0.023083623197562 0.057258410275631 0.018605262306742 0.075037384237605 -0.109213211626496 0.028003051403465 0.025708459100067 0.062828377402852 0.199958768168821 -0.021110174760769 -0.213721548759219 0.025759265740466 -0.037380898347686 0.265669331701282 0.060307690524153 -0.166756391525505 -0.026986294258766 0.000409727300440 -0.200747529513295 -0.125471061705314 0.004868710519993 0.057461926859338 0.085609834362503 0.086029422113280 -0.177988432261943 -0.053019120993890 0.047232312491838 0.195460095298274 -0.073355360601794 0.113325821488689 -0.015273797218347 -0.149917380787950 0.140949236087838 0.079939623779396 -0.069323712677448 0.080658913788382 0.063794027488386 0.168448674902640 -0.049055341163540 0.044608446390426 0.068713532641801 0.071753230906661 0.221093805119948 -0.093471206783250 -0.028333247143923 -0.042505698441087 0.136112250689762 0.101442057019806 -0.010629426303694 0.007639125962466 0.085252606098677 0.003192746693710 -0.011462663331726 -0.165756775728614 0.061473751522270 0.044844901678463 -0.053965507567695 0.100234886020045 0.029008646479342 0.042302757106041 -0.081080967399509 0.141082227953654 0.169361550069078 0.089092853689341 -0.053151062462653 -0.026013932001928 0.059962893941891 -0.125418811532793 0.181880067139072 -0.028730829890837 0.110070653823652 -0.004781930950304 0.185079476870848 0.228653292165779 0.015437297807253 0.170015339536230 0.024400121060298 0.114487493062737 0.074123112630737 0.032585482869930 0.126482755415807 0.073328590663842 0.129693801780080 0.053717976369592 -0.015987699682841 0.032273348471925 0.182092434040744 -0.043098387200762 -0.041042402901518 0.094216819069747 0.086577323785910 0.155918677053866 0.129414334672486 0.047508416237956 0.070831745228590 0.212993759406972 0.035555986266690 0.106256207500954 0.198759570776206 -0.253120535044351 0.102649731058044 0.030690047449985 -0.072486649948396 0.135531157932841 0.086479836778923 0.091034687404768 -0.008874644253857 0.015810411048009 -0.095544988831591 -0.095050868438105 -0.010169201785910 0.003690195537398 0.044227029135621 0.027805337457813 0.090791820064624 -0.085150942673453 0.038730007069195 0.037526003370118 -0.015155711561454 0.184926821734739 -0.030026939785601 0.088261563659182 0.085550932352349 0.125581842032139 0.053778828019333 0.139705931002214 -0.090204975419388 0.044157242955141 0.092519570140317 0.084193857211562 0.011795682822492 -0.003926426700342 0.192830002559434 0.104805928808043 0.092749156287981 0.063095866283029 0.259054425307571 -0.025068506691243 -0.051638984228112 0.032860447272653 0.005958572098917 -0.008519509735773 -0.121597780873656 0.053393549823946 0.052845127013493 -0.125993709648205 -0.051339914208033 0.157767567661155 -0.077374525069211 0.023043487561558 -0.234932087198576 0.080717343633069 0.252939565511424 -0.049926450228568 0.068026573014865 0.020973947732526 0.152665747012629 -0.012845522049124 0.117390859138870 0.081299898961698 -0.072491432330167 0.143029706589885 0.125017999124845 0.006327676736993 0.144157204634418 0.113211661363701 0.035048704688454 0.024808550159645 0.085427794535240 0.113079779410311 -0.079473857490001 0.143184193904483 0.092129969115920 0.084676498200778 -0.012680595742262 0.101122987733896 -0.074758234101309 0.057895214851226 -0.088243699469906 0.147809165028509 0.090217564754210 0.098415306231576 -0.114697210985820 0.104083377325140 -0.028233033670903 0.155285128928763 -0.014612940472639 -0.089353393787678 -0.042568841834431 -0.006419023440298 0.025676198844822 0.045696240378872 0.104653526565076 0.095549708832504 -0.037320493822221 0.001502762781673 -0.211533906198534 0.139601284656611 0.023831080220309 0.104163178703292 
0.030217757697653 -0.009287113114426 0.126801170378212 -0.021055812619653 0.148238002407219 -0.095811814805329 -0.080881437402804 -0.050850619933555 0.116141187098108 -0.074532786481213 0.075819140149252 -0.078810593803149 0.175571992728283 -0.006515066577540 -0.092908125291598 -0.006589204551461 0.148820025254194 0.031462164641656 -0.029058306691953 0.076983366589934 0.030207963358068 -0.038575710783717 -0.061405847218537 0.177966721292842 -0.034066230112180 -0.057987071311543 0.100173132429784 0.075554212512609 0.046636630021376 -0.070144443998778 0.161201019079993 0.044917182176705 0.243937528033135 0.020541461931233 0.177243571214305 0.004631735761742 0.063923247227234 -0.058258681840061 0.003628670962982 -0.048957529462714 -0.013982904411820 0.095766835001015 0.157934127274114 0.063373260037456 0.144497092404127 0.086966533352877 0.143230236318058 0.015116840499029 0.056921322244457 0.005380342160573 0.059489228379460 0.161550635591676 0.205258768803643 0.057551441867191 0.135924433207884 -0.028282556556397 -0.096614803052937 0.172777692555405 -0.046047365103027 -0.042163606481577 0.051743333502202 0.042741917784002 -0.083635995464830 0.026433663896340 0.105147525818712 -0.018771317810648 -0.167946317230549 0.028586845081613 -0.044231414546450 -0.046967509044278 0.052203146431326 -0.064802908206041 0.040293546426603 0.017022700352314 0.051286930220444 -0.071689094949243 -0.062438447017662 0.058314207343849 0.225210076170800 0.141143913256815 0.079751552831889 -0.037708793681278 -0.101577436028282 -0.003036571723617 0.020124574782863 0.149514458063485 0.010051462138936 0.081187522139125 -0.016996856893310 0.115462957589308 -0.109023958236965 0.096911500236201 0.253630154408289 -0.122094745561690 0.063444835461462 -0.041925176908606 0.049260813332040 0.169591598112092 -0.045787373884671 0.017188688504253 -0.062521324595157 0.041293351947455 0.026958935987829 -0.071372358514876 0.074716544508302 -0.068493427394009 0.096126869746566 0.136136762587693 -0.163708668371147 0.101445542611384 -0.075419149511450 0.056586676396114 -0.008726898591036 0.045782529654797 -0.058353289111454 0.035144494506617 0.161598392834679 0.099568076853547 0.102055207888228 0.027085497506592 -0.098425987090069 0.139204496742345 0.241231488772139 0.010723874187166 0.072078085238755 0.116500532823562 0.116698086148085 0.001644356521490 0.008183018510426 -0.034235016049580 -0.022039452766024 0.118977375358278 -0.094845885649709 0.112966964030321 0.029333170106675 0.025444346966447 0.246782626014384 0.100478554236267 0.108936042104186 0.116342388549045 0.183977842701745 -0.072185658808146 0.074815849642319 0.041742517358331 0.159279812256310 0.150617551050233 0.132830709990350 0.066247664769825 -0.036970593507486 0.188679414195706 -0.083581486843247 0.113705144973351 0.183329776785312 0.136645759292365 -0.109647602944893 -0.067126644344653 0.109820865346549 -0.125336794365582 -0.044123583707605 -0.037127586037362 -0.175042690975404 -0.167893920404537 -0.136946487646553 -0.110312974185046 -0.121112026141225 0.086211176856490 -0.007300281349169 0.014457513543338 0.091038574395983 -0.029042600243721 0.060466985262812 0.037836940497221 -0.028397282834309 0.119810559756041 -0.084583959158131 0.003336678026814 0.142314145793993 -0.108829614355331 -0.014827854839066 0.121688378385550 -0.115792573255276 0.149537615993682 -0.019269276685842 -0.165856915162941 -0.035112718047022 0.345822096747351 -0.026576941805565 -0.066172242964981 0.001314606265459 0.105677406355462 -0.029277525676872 -0.175961498122626 0.210195610000545 -0.156895303193562 0.265169270430219 0.010314420647987 -0.112978532666347 0.273368411057926 -0.034405286964299 0.073097349060757 0.058940311156526 0.083446864874769 0.233160650843320 0.093787742217306 -0.047831879808917 0.122550014711752 -0.081526464447906 0.085179063656581 -0.035917104584670 0.084214055475938 0.038149685574540 -0.013216163614430 -0.053958250883886 -0.172620789593522 0.046891710778660 0.090935182447919 0.149148746498099 0.174637576455541 0.048757945822772 -0.102318979729576 0.069681298273511 0.116795120125005 0.154200069392920 0.052160797306852 0.007198136258436 -0.071490187910487 0.088287472123369 -0.068107531335114 0.044372631200402 0.119449715528318 -0.018692807480650 0.087515736973803 0.085258657612223 -0.000841752252491 -0.043175664472435 0.006494164077984 -0.132547541974350 -0.121102123668972 0.034155657371726 0.216547711962242 0.093425665690259 0.146210100264976 -0.057668265858635 0.010379751537998 0.009471342279112 0.104129691656113 0.093424508500806 0.033966750395305 0.084360322132554 -0.008451273494907 0.017944609328792 -0.075436751078544 -0.008450453077598 0.032231660700701 -0.055472441437790 0.034620385830185 0.083896531520688 0.012777440105905 -0.047860776253242 -0.055339240897142 0.024498187258358 -0.089635525921534 0.127099841090182 0.150966151158716 -0.202709733251408 -0.054173830866429 -0.036247963486999 -0.132527312843563 0.098331092835627 0.147466040435053 0.057228826954281 -0.045281969825593 0.050765874712954 0.156298196524794 0.099418027144166 0.106757362602320 -0.030363088695865 0.154110708833636 0.132212807277731 0.040344264063055 -0.172043806954390 0.056948792185085 -0.067575125881591 -0.089540278352946 -0.025586008928390 0.090336429882694 -0.033909267261771 -0.044299598144975 0.107320182418761 -0.003565651440176 0.215707372648709 0.115501060515126 0.015039948057421 0.040213823675444 0.087046811804157 0.085169274748020 0.146314101386607 0.147929609670524 0.091384960728327 0.016074777961710 0.101446561889482 0.005451111110793 0.212359252172547 0.012268416968270 0.051367310113554 -0.032197187781068 -0.198025127291594 0.083293779045138 0.051637095932982 0.130539576295788 -0.060923199981347 0.087766323331142 -0.052164213098029 0.193532139341733 -0.068507769297669 0.179386889031892 0.330510339949543 0.007178063244274 -0.106763027794945 0.020669476821578 0.030242665905350 0.065607954821818 0.187998308292166 -0.005697684491841 0.166716564015236 -0.143395508224033 0.048166617817970 -0.029572244275618 -0.011648139753130 0.045834962500441 0.106257304347724 0.094309596378493 0.138733534546046 -0.087077417151319 0.104215969551494 -0.101658092845091 0.011101777712609 -0.005228846144755 0.169590533823955 0.180088167556790 -0.024913183082866 0.126340145086897 0.037521332501427 0.028325469916657 0.250395650629808 0.017479442476355 0.016745967612470 0.171038171267962 0.007546193838899 -0.051214685865170 0.056093931416348 -0.008756938186571 0.118555535081616 -0.050072606666675 -0.058592503663112 0.012261098112548 -0.045697823965622 -0.142039901835939 0.135222547507964 -0.147855098078242 0.055346477854328 -0.080403172025548 0.032177348522092 -0.155669279631014 -0.012531622679516 0.113548672915104 0.027459849134890 0.127207622949318 0.246994144203818 0.167273745347860 0.258902021539852 -0.023725344595260 0.012437973454077 0.141571368159258 -0.001962005263475 -0.028436604189373 0.141504778322193 -0.081006852063922 0.162628594663774 0.057364800674220 0.013705856672407 0.038021757764624 0.202434365444902 -0.186550324696922 0.131913875535894 -0.018843957506962 -0.014813123483060 0.051175257244191 0.102150511214009 0.044759768649065 0.023028567865513 0.107815506070896 0.108288030548372 0.245007801311023 -0.051633578878898 0.006196969441672 -0.116831037403958 0.036783265409921 -0.101629806936442 -0.139859084250383 -0.102938847358732 0.100534404911040 0.141164250434668 -0.047770822936262 -0.117273467036595 -0.035071932225743 -0.000436165440773 -0.063502068760870 -0.033249040373028 0.058969523913869 -0.000204085344787 0.192862986779439 -0.032263249507810 -0.039511694921932 0.028185872655504 0.045581988992295 0.252239441917123 0.069067154430216 0.032163046990218 -0.047374823467741 0.008172943585618 0.033109830897198 0.133104529049622 0.193770202036746 0.093462599945005 0.048375877635528 -0.015067453707624 -0.092044148198040 -0.038186653975969 0.107822521877749 -0.047255211921449 -0.009369792749086 0.100564591455275 0.097789864850283 0.054358417492183 -0.104291051140781 0.046805334986438 0.038445999273692 0.010818294055636 0.029871799991985 0.140380277424637 0.119496548534833 0.043748066661894 0.244161175485460 0.113278882456223 -0.059081676674089 -0.153480464068136 0.055160675417886 0.093097139477889 0.068004808372133 0.152955572382578 0.024059909493068 0.186038181562742 -0.137557181299909 0.098482734744567 -0.006964800671029 0.217619510657162 -0.069539324631037 0.071377874168419 -0.065272449226524 0.190321408442151 -0.043689220455242 0.026234113033901 -0.067758123236676 0.067615086889132 0.226559417420918 -0.091396420607971 0.029576218031449 0.049409369262548 0.275730412058221 0.147153273051364 0.011653123441968 -0.091098395955194 -0.114235631794038 -0.047937778558932 -0.139518344573893 -0.045956901221654 -0.092788866272787 -0.151382058692748 -0.029282304563892 -0.003681634763012 0.164696306708841 0.118336425328083 0.046146071183971 -0.008705827816127 -0.053359905214501 0.044996723091992 0.280118986896543 -0.036967517983005 -0.004736784862390 0.106016295014262 -0.002512369045164 0.067500574541700 -0.110955885591210 -0.070569800168613 0.124205219812589 0.065621331412092 0.014678487287313 0.146857017776877 0.017440177327043 -0.087455860641215 0.086971317258308 -0.157161072614895 0.106130790925742 0.337780218585229 0.073127273656557 0.046527117939333 0.122606359392158 0.001352461052096 0.182548937564757 -0.138532832548647 0.119097156515784 0.012026469539992 0.074571510921109 0.166936446662543 0.049068522684960 0.276178678621687 0.129830520852624 0.022659437946266 0.163321365460080 -0.024770356097372 0.061368162567285 0.066357061932096 0.070451640465100 0.111943689332020 -0.006568418631022 -0.077116425600938 0.138302957283139 0.029269844756092 -0.022158106474465 0.153710982747749 0.106701173863421 0.082141411487632 -0.015396441989883 0.203934786044633 0.065714251260483 0.121577106200519 0.153603319924684 0.024604713648085 -0.084113518985004 -0.080350973620056 0.018979328603577 -0.058285343205245 0.087153303476818 0.239412359419144 0.081579945095561 0.036762234697095 -0.074905239679150 0.140772410620077 0.281130450374200 -0.158279859897082 -0.062127759481836 0.079131450976088 -0.054352261149556 -0.129690716547295 0.037580073172258 0.137101994132310 -0.010369837577679 0.142096163996402 0.055334944666227 -0.055772847027236 0.155714192819239 0.065405997542159 -0.224001429434722 0.093430217618177 0.216786972603810 -0.017921792113900 0.059924449165577 0.122081959579414 -0.003089165157148 -0.103123260330832 0.067834970792411 -0.038365266262979 -0.096526693507763 -0.029003990476822 0.100234804675835 0.061808286370929 0.053148503295946 0.161898345390201 0.106360228605895 -0.133299171360325 0.084794607091158 0.124421262724975 0.090765015651759 0.072395049989076 -0.006642680161743 0.015324396371462 0.130991260172792 -0.053781225180031 -0.014994539950196 -0.081240910719845 -0.070425676339533 -0.062898529587651 -0.040002145529357 0.081017201194684 0.029652260095589 0.093063472575686 -0.050082900384858 0.119305038543027 0.149538305593988 -0.003842464895155 -0.003522587322108 0.000501095947699 -0.005847613205339 0.032110906121889 0.034685335915578 0.062424109169648 -0.023656077241701 -0.106742058401556 0.184724278013296 0.078721984820242 0.079615501242897 0.075154682682861 0.096224032086569 0.037733220673625 -0.015919038739679 -0.126366716287006 0.218432143162393 -0.028548919238467 0.031305091963463 0.194632603973836 -0.087595194461959 0.127356176239782 0.004982756549606 0.156138440808287 0.193188200229518 0.051507195400482 0.015900208423529 0.023103389199827 -0.090159279276746 0.114584855680505 -0.006298385490884 -0.027257626653371 -0.016809698571366 0.246199610648535 0.024532532211697 0.045426908209536 -0.050546398842862 -0.122886236459307 0.103957606165415 0.074280179386210 -0.000749838753338 -0.037022418095877 0.095656987570938 -0.007793566801252 -0.071814530131466 -0.017642401020103 0.036808162821673 0.083515438103661 -0.007531443427801 -0.080487497253929 -0.129277330867989 -0.205064818740734 0.204062050168696 -0.033318539368312 -0.129440627757230 0.097963874512449 0.043585478594561 0.049563767753435 0.219868439950987 0.029513024869125 -0.042649306519269 0.199290722994096 0.166378028085347 0.020153161294594 0.005815242966011 0.095496631080520 -0.105911736920996 0.028440220379725 0.104111037234234 -0.077900766350400 -0.074258688888276 0.096315694207099 -0.066878018154173 0.007116478750399 0.172337313895924 0.177848357990659 -0.038496755228914 0.154805459982014 -0.028449004971187 0.053419638708871 -0.001411469876295 0.129168392914933 -0.135883696655596 0.128430976643658 0.020075564413314 0.285526380064129 -0.041973785783266 0.061384456492331 0.062695579621594 0.084049849044258 -0.080991951646839 0.013756326051924 0.034169322855480 0.051232535831502 0.039994653499179 -0.024361595933074 -0.008837580203547 0.086603919285376 -0.120243805932164 -0.055526849567278 -0.017067563092442 0.168508356199627 0.021998205161012 -0.046193401106483 -0.067942897859143 0.088992192718903 0.104912911773858 0.119237319834170 0.086839067628744 0.031154549920835 0.094119043174830 0.051958466007096 0.150055634666245 0.030293942196120 0.076688781689666 0.049159876935842 0.090264278962379 0.086659105644398 0.082399399462113 -0.121366535048589 0.113867516593784 -0.015033279324216 0.215021636021274 0.060441127592136 0.013514326768125 0.149097371811266 0.095831119375874 0.044961720696941 -0.135437548379029 0.058050858484731 -0.099572458933089 0.044926735447127 0.001788242103848 -0.045160660215998 0.137473182765251 0.082472482845034 0.007471468309490 -0.005666632429926 -0.095882672074509 -0.114196338268028 -0.166834621498813 0.061500595170977 0.041199956165514 -0.210341701241158 0.142734745845100 -0.041836894398747 -0.066959947733898 -0.050665468653389 -0.086871745418654 -0.187820248006018 0.153357264319107 0.147101210135718 0.173404634366159 -0.208604234414251 -0.105438754103274 0.093207180133306 -0.071919261906828 0.062354086570319 0.212116188688978 0.145687538330385 0.033333235494919 -0.077400661379279 -0.013847183159440 0.028930897287568 -0.003096292855916 0.041186681313744 -0.142455885398331 -0.057748144820785 0.106958904058343 0.136753051742431 0.234740511233194 0.030893984203809 0.014310607101240 0.136835998354081 0.082190259922075 0.014121947876704 -0.048119064383583 0.144108274318600 -0.034034354187541 -0.160986932015682 0.106501957569611 0.033779982418247 0.057003111691735 
-0.063525956121446 0.064873267873885 -0.140793007191607 0.192519579154383 -0.100217901159837 0.029363643103484 0.047397086026676 -0.025673301326541 0.086482254931601 0.117752370522504 -0.048321414225576 -0.028244424701824 0.114334778204024 -0.128192503514971 0.176863120582202 -0.218270836666161 0.047983919090987 0.087515414603672 0.014663767245327 -0.136013377231467 0.050487964255581 0.126692707880830 -0.045507716479027 -0.163706432636920 -0.098813193965651 -0.012073783819651 0.009847024804026 -0.044197253785434 0.023671424050420 -0.093299847888344 0.037128589882159 -0.002001375447137 -0.007391973531457 0.055515340096532 -0.195757985085141 0.017201434274028 0.067319569310478 -0.043728363938929 0.097389237753223 -0.049206705359529 -0.092212053502818 -0.094100065778340 0.088916754347615 -0.112901818095461 -0.067562038860016 0.094283740347666 -0.019119999610899 0.119954068992994 -0.050993343837642 0.017830343853479 0.049732033465145 0.218873113339657 0.279906722427909 -0.085737707611081 0.148074137370395 0.083195113357901 -0.166963757323442 -0.016588452396017 -0.077265263735664 0.055891407018386 0.100083139630167 -0.037918841873506 -0.039573690338595 0.107611340348552 0.156245755820014 0.031364544025349 0.007205124056929 -0.099760636096605 0.024202502131348 0.088990070828118 0.129286630376784 0.153473283573117 -0.122610435420605 -0.097105982229783 -0.013308720895145 -0.031089077956956 -0.006581374797840 0.212675313404861 0.023534873062409 0.155011340943366 -0.041213370432452 0.012161269669101 0.005700916541970 -0.085257746760595 0.147570149609263 0.089114313602548 0.125579446661377 -0.069669637961248 0.031439761169372 -0.118536628350753 -0.043918550273921 -0.099752410340665 0.019335956905049 -0.062916341578236 -0.059822590566940 -0.031772284012175 0.083213092482245 -0.022517250179937 0.170121203767361 0.182394142632476 0.132064498404892 -0.049897791933605 0.165540132452244 -0.183813540112900 -0.042788340472313 -0.015025900009990 -0.073277278909319 -0.047438702625238 -0.039781077688082 0.102520101082638 -0.061230419540018 -0.120860074672724 -0.167835004322752 0.027672654203161 -0.066048216096960 0.024208096025970 0.032811684605964 -0.016016246070746 -0.023871739458442 0.083107788068204 -0.025514131556843 0.068998731133827 0.202723043741644 -0.160123954847919 0.052113401612184 0.120770857034426 0.078330985588490 -0.126834111549172 -0.101980715409272 0.110265871971258 -0.051398071397428 -0.041850203100594 0.023975999062936 -0.254599470417575 -0.080321018553100 0.102163285614207 0.048964246939086 0.189570778975453 0.000079425693603 -0.197034615571207 0.075670916466339 -0.087409019874139 0.024687913210336 0.035795451933189 0.255518439748129 0.077354937434797 0.010814605501867 -0.127876134159441 -0.001247012359410 -0.007824005040313 -0.139301704112782 0.005823056951796 -0.013315509966611 0.086006491092964 0.118374941100578 -0.020341236444731 0.201477928709948 0.184504547827421 -0.091910355411512 0.174671764721646 0.028705649757320 -0.044095468094966 0.061977679910711 0.072405619001452 0.135203597920663 -0.193432219015620 0.007717048330020 0.042193454328580 0.049275704288820 -0.133650174256985 -0.039563362310372 -0.027047532812052 0.017632998204082 0.158396233096763 -0.068483740634996 -0.145061084156995 -0.003124959178708 0.071113641331664 -0.051719832904044 -0.031995791399985 0.094878894472792 0.139216488703531 0.041847186879212 -0.048343450673498 0.041223009118621 -0.071758910118566 0.078620114915467 0.140846220440186 0.180606063618221 -0.210760126348768 0.079654928890648 0.138662538147304 0.105579235304295 0.014054865231746 0.043302922806819 -0.021129609278922 -0.296244184260041 -0.056278176453682 -0.038564653938133 0.090377476647035 -0.083240877133502 0.067106456508107 0.078614988621241 0.161884500265394 0.132818687144987 0.007760324030349 0.158929611436244 0.083284229246360 -0.081563479996627 -0.072122037149629 -0.056299583162581 0.148586300777123 -0.002914192445476 0.131522125312701 0.242175653400088 0.237776491617487 0.083697750745651 -0.090816510911391 0.142373201271218 -0.082838626401956 -0.065658358131081 -0.102087655840999 0.201719371201261 0.118064373498214 0.066166561343398 -0.227908804688497 0.116281975861165 0.070019886232458 -0.034219934919315 0.051296118435337 0.086619224743649 -0.162550020961217 0.046315774126328 -0.019392929646365 -0.050968187664984 0.038075413083359 0.143076297948573 0.271945535646786 0.073496386976971 0.244474784005212 -0.209002673648099 -0.122226411057608 -0.057867967135492 0.030665020307086 -0.052762499303042 0.027208241401259 0.019141449249250 -0.049611660589380 0.098855112931036 -0.162273610498936 0.086383474784380 0.121424102688656 0.069053439268018 -0.082427425361456 0.041021523511548 -0.110498932567318 0.104109120601227 0.018990729956548 0.044955181275492 -0.110382515463798 0.007039998861482 -0.094551971525215 -0.151133118289678 0.034949035769353 0.135104602922612 0.115387766124630 0.029962783223300 -0.023034533837382 0.008826316144625 0.169253471417737 -0.000654722466724 0.163572866826757 0.108477548774517 0.059394118939037 0.029490171514678 -0.080724636030745 0.042343179473074 -0.004862838433709 0.003186292134578 0.168705718315671 0.056609959306909 -0.051780727513855 0.102913673126063 -0.027420633426771 0.007600913322287 -0.093867554689389 -0.056274268550830 -0.009622870024151 -0.117616252551377 0.121009144277257 -0.015874329018778 0.034148342428818 0.094139759151360 0.037029139324492 0.023700514213454 -0.048704332911161 -0.075536004280807 0.027837349052508 -0.095049047234163 -0.000205589751260 0.026526772133028 0.043604319512356 0.073227611203635 0.132587299249097 0.218993520164297 0.204810949544781 -0.185511556053689 0.113483414665129 -0.092572667112906 0.078199260099838 0.088458914180509 0.086135154554747 0.059178596737629 0.114390279125683 0.210488926570448 0.071115600533858 0.105084352360335 0.115637143702201 -0.021718829107677 0.128845818094832 0.060095219867719 -0.013049493708665 -0.120062174003311 0.112917756978300 0.265155544546985 0.221870449552084 0.107683777238092 -0.138441244586230 0.095934073469174 -0.091716751588817 -0.004284508337603 0.065618141515938 -0.006263181381523 0.017000392566095 0.120287799346179 0.105989523593546 -0.011171638491789 -0.071336787064692 -0.172248198237242 -0.050963582113185 -0.049132357495924 -0.004425689434944 0.022761749233030 0.068173265181495 0.006993859077536 -0.016957559840541 0.049313694497678 0.083141588118736 0.064614658926328 0.080487882592675 -0.144216007253627 -0.175778280705282 0.206267113244727 0.161486397895339 -0.139404015866064 0.092690012837836 0.235938035396744 0.047518148855699 0.028742912554835 -0.101738671445711 -0.010094663052162 0.004628354317820 -0.137863395886266 0.082471081947621 -0.084173864647645 0.082682748134682 -0.049104196640147 0.020753074786951 0.196684107368451 -0.149180163385929 0.017567048329765 0.063543142596939 0.265829401957739 0.102777661004709 -0.137321503703683 0.066435187438402 0.039824858907511 0.002409091889982 -0.017494293520706 0.083549979063491 -0.095412798876183 0.225917925965408 0.081191450548695 0.026123102228499 0.070639192445033 -0.087705528386897 0.057232511304715 -0.037991332109261 -0.003903424504983 -0.060721247195668 0.096909252086698 0.083397563328066 0.025045535827010 -0.101476081125836 0.125183998920785 0.033552165106085 0.010577162579000 0.024665808929264 0.008626714008101 -0.088214911352066 0.036627913098773 0.013268397353508 0.057043089961277 -0.092199192609838 0.043337523806414 0.097956853841531 0.106866546754850 0.179960026568412 -0.070938966634957 0.084337041265713 -0.151547853185119 0.027940162531078 0.140343042296854 -0.113512990308344 0.115338432610240 0.135066386838928 0.098576165268640 -0.084776877825808 0.246650516838951 0.030149053345666 0.054309480128550 -0.032595289253268 0.135116468758732 0.020968939201369 -0.168467558925065 0.069683083705542 0.057375299804421 0.165427143884425 -0.105912764324099 0.040313600016431 -0.068398426099060 0.094750600652189 0.015803661873608 0.141952990881725 -0.009006078379114 -0.069629556342944 0.228297555061775 0.081781640967895 -0.038432927522347 -0.080103509023742 0.266543600587190 -0.037027670164044 -0.013254169242012 -0.050306988104563 -0.149206232230769 0.051653911832718 -0.078138523193185 0.084499394235326 -0.099841337285488 0.022888106668313 0.194855456322235 0.075185630300029 -0.010275611927396 0.100311829303227 -0.053174817162387 -0.075707304618199 0.039983064875410 0.033412126876303 -0.018742498139917 0.040194253507691 0.005983826492531 -0.167588968145070 0.148664064340294 0.041268514263809 0.079326178627617 0.019336425213647 -0.098394279895726 0.245821307729391 0.025601689683141 0.026925896690745 0.274158619853018 0.285122080042928 0.305844104391985 -0.136193810665088 0.101554109942114 0.070948387704368 -0.002240261752207 -0.109725121731071 0.111650592149148 0.035335636108924 -0.106804060969679 0.049675069385403 -0.059076197475349 0.080216257612445 -0.146393485085203 -0.016111008034672 -0.093680339708367 -0.010500019603441 0.081381336454124 0.138883739678611 0.058214429804946 0.092001316381097 -0.116612071107068 0.029264931553544 0.056795310515339 -0.094515284246678 0.275265428322830 -0.003522350320520 -0.123149668127321 -0.161990190376123 -0.020364102127688 -0.180807726865500 0.063106744435725 0.035690004312847 -0.042125443586312 -0.003861680373170 0.024655277867686 0.090111100603231 0.061482587962348 0.207376121073251 -0.043370375925454 0.085032723909758 -0.018435667869836 -0.068184741372803 0.012858859547917 0.050645997146066 0.025358605494618 0.059055949518349 0.085033065408273 -0.011973791409107 -0.037555840380251 -0.022527733828676 0.075292800447332 -0.039425546559260 -0.016842726613078 0.042295794001987 0.019938900535741 -0.016076849410395 0.135965802705109 -0.068252934730691 -0.149144141318214 -0.065964936279158 0.030636404515285 0.140447045046717 0.154740204073948 0.061184300323916 0.088397891932441 0.064307357720449 0.139458318126814 0.090164054219173 0.111997135363963 -0.170673585018017 -0.018863190550453 0.019641844516697 -0.190884897850314 0.095777028042596 -0.093939806622994 -0.082512219174929 -0.018893706431144 -0.110688799119242 -0.110843558066461 0.076278580996381 0.182393609524702 0.097059389633989 -0.036190851480754 -0.110442964466535 0.153598422746087 -0.188714564757693 0.020202560674893 0.118959626296682 0.112359581782403 0.102606949155731 0.135252033572223 0.024449578721570 0.009015280198189 -0.040652366796906 -0.073131852719880 -0.024752488309449 0.032271646045018 0.130167781748594 -0.018054794242240 0.105381752985488 0.048060988534182 0.094489262835903 0.081436738931246 0.212068142922026 -0.012736282243886 -0.071629185119121 -0.066008595940764 0.053268455863718 0.149732357891709 0.017649292287118 0.011583531501573 0.001003772363688 0.114783141397633 -0.025935736855792 -0.089266449795817 0.044512952947864 0.179579792603462 0.067215354982193 -0.162434921585932 0.011551434210058 -0.077446987368820 0.054914863498034 0.168751548200670 -0.051032784747213 0.098234648502280 0.027917670382541 0.155970600731045 -0.093678938232297 0.195813369989786 -0.038761679545875 0.170785711346027 -0.085940132121478 0.145680032871510 -0.017913816575350 -0.077017289793336 -0.014018229223323 0.024203779251174 0.137164221066108 -0.127672394435628 0.053962016370813 -0.142329157178201 -0.002233456406424 0.043525092130398 0.000927528351045 0.014161940729889 -0.060691395966114 -0.049473632110744 -0.150539045788234 -0.003451710796950 -0.046796530578443 0.101067138721661 0.006282051425797 0.020755057709981 -0.095557906331954 0.197479384328360 0.064194313487850 -0.091487282963916 0.014623286906425 -0.041012458953452 0.012057867086270 0.056176213567097 0.037438981760942 -0.250764792927626 0.052411331222413 -0.033458441859224 0.071604546681354 0.158425921006036 0.051546127279232 -0.151511433879116 -0.103113782561882 -0.122959340860067 0.078209854951996 -0.048305527916575 0.098160819592893 -0.002183649490858 0.005913575442133 0.180856422809167 -0.002838737043928 -0.046094490832295 -0.043555442285512 -0.119338677859257 0.079171231786866 0.041326661896111 -0.179371906066927 -0.003561001216733 0.002606581022362 0.082200780949206 -0.092661786223291 -0.037853028151060 0.078385857432194 0.044266418212967 -0.014346073751200 0.003863171747349 -0.032546277302355 -0.121843605523440 0.075927655999066 0.055932866303666 0.148912324033202 -0.073556978139284 0.147641087184892 0.064788264776530 -0.097777846493051 -0.169954610669756 -0.055063512475858 0.169177972500764 0.069509540302631 0.019926901233645 -0.034261901876415 -0.003961602274159 -0.016965724496906 0.070572113074798 0.067030102704880 -0.012769279257409 -0.027539059318994 -0.097683221305060 0.038951447484914 0.046507718352718 -0.139249034498673 0.058763308187051 0.040163962063941 -0.041602156915104 0.075657757629509 0.003893569040372 0.072443328947551 -0.084678706638538 -0.042686271106437 0.085491475981626 0.183224302452961 0.047363409921867 -0.107810497010972 -0.038056719857015 -0.142745325248509 0.035132294338191 0.079765028852251 0.098506555594059 -0.116770756426758 0.139859730705420 0.020648171715024 0.071200388048869 0.046834725244347 0.026646367139334 -0.115209996707225 -0.084742311712224 0.087919764878850 0.183402469024413 0.087864007680614 0.121291926649344 0.061717839177140 -0.048275486423297 0.045844757626131 0.076848716915172 0.007878087472029 -0.018839959974771 0.103523736615950 -0.047199275780567 -0.106489246040422 0.123181762015662 -0.035489125225360 -0.023421016885895 0.089382016895736 0.163445761737899 0.089028173845027 -0.132330486406650 0.025463301606606 -0.101248050439835 -0.115004887916176 0.146670578627057 -0.093708120277831 -0.307808718973285 -0.003358318939687 -0.210180944021815 0.136574989197243 0.189365045128410 -0.047896759728450 -0.111293451487516 -0.092882773501702 -0.028516070193885 -0.062054645595200 -0.046287842683269 -0.008706091794146 -0.137773799923605 -0.102269724117642 0.179259901425445 -0.168053874742421 0.103935244244824 0.125835000195531 -0.070852585036625 0.118784380947248 0.086043835152163 -0.092383657706815 0.095504474355965 -0.100146269604194 0.017992005905098 0.055893073571669 0.013369877493030 -0.052071952008643 0.060355261481545 0.087128749316772 0.206304066741142 0.093605870188101 0.106140182148817 -0.084895139555330 0.070516980703245 0.068600370808883 0.163311176201455 0.064656279142937 0.028262111291904 -0.081422308775437 0.010827968206629 -0.008110354601252 0.059266546279813 0.098821271037146 
0.021819618934864 0.093785088122076 -0.106090985929938 0.127052050278759 0.105454395666138 -0.173144712322382 0.060745478268777 0.012436233455006 0.046415377977402 0.244548766084015 0.142965609464797 0.093318022737266 0.108073228223137 0.111911186277101 0.207498456071472 -0.010369089844721 -0.076424547791808 -0.066470619330028 -0.063724385021666 -0.098321142056276 0.005809293676461 -0.013004445562506 0.007497174360758 0.127089873115057 0.085842314526604 -0.089452781320160 0.077544056830930 -0.132124365453876 0.141447689105825 0.166271943796492 -0.054136058512248 -0.004247353598813 0.095580943392075 0.073749082873419 0.124691792020087 0.053732058454578 -0.033355457646304 0.158414448157749 0.134394905905597 -0.123525077408274 -0.033410949618633 -0.200813922059940 0.026250318436716 0.219689534296669 0.090702345740510 0.118937461005935 -0.012687747946769 0.071975813370472 0.077985377374930 -0.021996151409174 0.157013563342100 0.007681708386288 0.070468885912023 0.195582400510375 0.243300077710649 -0.064741850692351 0.059397253055681 0.094179774198878 0.033514465305233 0.214864319422254 -0.089021876680248 -0.037564066483118 0.244734621633659 0.008093081248468 0.007043920539885 0.019027628758547 -0.170623069179478 0.068191527683044 -0.101187219363123 0.306719439074935 0.037857134116364 0.172767053188700 0.111047313062262 0.214367015547690 0.094745603521024 -0.061283527702027 0.187419823814271 0.046330055694507 0.063981184842741 -0.109022463350897 0.109620793560846 0.031434277863990 0.015638613915814 -0.072774872844420 0.031616524861043 0.087866609068879 0.092037402699538 0.151638061468469 -0.080373775844508 0.083540924918828 0.156610910071895 -0.001589930091505 -0.060745068342450 -0.058301730907481 0.164451750351913 0.159205791740446 -0.034558448180225 -0.042127920871311 -0.148114479836372 0.148389565742017 -0.107243141980913 -0.023175157839514 -0.137583743927159 -0.012048789572122 -0.026053690110941 0.044753210596307 0.018975620913540 0.088194618735432 0.075091474337755 -0.140418270113734 -0.011180666571028 0.084116536847293 -0.106006669128350 -0.006971452459635 0.029495142221366 0.041688865030043 0.000617962772061 0.044501946713723 0.105013362775835 0.050019479124354 0.076352805318499 -0.052449716339168 0.074383486811223 0.036663813952777 0.175104480025873 -0.012492638697358 0.041176364877814 0.170492913001609 0.092731064428761 0.167333273315715 0.156422622256629 -0.030170937857095 0.078665146120857 0.130512818532041 0.118556816313472 -0.020332897614499 0.150570086742827 0.168232976149613 0.160008796944687 0.065345415801254 0.174968029318262 -0.005665561431817 0.068421704457741 -0.020487534685565 0.023745616797953 0.230853960714527 0.018247515524678 0.128493339964705 0.087142247827132 0.038476930404871 -0.115746631835638 -0.018275341159495 0.015756793767809 0.014468269422939 0.107646071223708 0.124115274531229 -0.144509563430069 -0.110764262461985 0.169682665053908 0.046290289415982 0.075029211586633 0.070742044750300 0.127877413421383 0.215668772489074 -0.133853784996858 -0.099581595160259 -0.057394407462689 -0.135287322222896 0.027463610547218 0.062925416059888 0.095681074022862 0.106207954102653 0.009103638547241 0.001456945432912 -0.012810700104907 0.049375254418104 0.133711280971071 -0.192992057637873 -0.029826465212696 0.082488213323687 0.017925268699336 0.064776850416219 0.002005843009698 0.027789186177204 0.088064557339299 0.106232522128733 -0.012713111865857 0.191878867070963 -0.116469559971566 -0.019252732785378 -0.026116048487336 0.061022746855203 0.101792428618187 0.081901610867273 -0.028751798205097 -0.047821008158929 0.065337925776667 0.062905064650333 0.132774011913182 0.038860914920264 0.086156782050208 0.097388034417219 0.163017404687833 -0.058678311936011 0.096094982289914 0.183779923009571 0.125194814383057 0.353406305650270 -0.075223163846141 0.113561146171189 -0.089854575488589 -0.001863525965094 0.018077934381031 0.011437871607823 -0.068302675337492 -0.154403166264389 -0.057617360791971 0.171992674246577 0.047891804133242 0.199229449291875 -0.041826122611114 0.006819086880736 -0.051212441662582 0.114224158697225 0.067732467979261 0.074654493060872 0.145787953085378 0.146752032845744 0.091675485260295 0.163587067394247 0.171249429381299 0.135116453870920 0.218129208474006 -0.044586463842915 0.047797390588349 0.088577081641837 -0.067668218562211 0.191954188412410 0.062622985226609 0.103358747561318 0.181139147354735 0.021305821582928 -0.105255921707369 0.083277584885844 -0.214464532135937 0.149966459888627 0.138742081117760 0.098391208574432 0.018588743739783 0.055170262844911 -0.043738680444317 0.057852344373205 0.015521303645146 -0.004636060307630 0.016709344364431 0.008819388954572 0.187397510746373 0.020447874483372 -0.041375169067872 0.024112788325221 0.035203437680725 0.155687454086070 -0.007680606143540 -0.072550845343485 0.180826755711313 0.156451148753464 0.064373092477092 0.107392853948592 0.151351060529209 -0.012111527857517 0.009147347493555 0.104545565386752 0.125818770944879 0.034942162392719 0.393506503488664 -0.157758567671143 0.059787396153988 -0.002589292173687 -0.063175815313731 -0.019233012466069 0.282755900052415 0.008926477824833 0.108313442299016 0.010931656740174 0.037357857518056 0.079961878350917 -0.019913632067823 0.002332332122234 0.022195846718916 0.125918348884229 -0.115629803881530 0.002930681663828 0.189203543003147 0.106238116786383 -0.009518789704598 -0.102554564824573 0.169332507826268 0.096606183155234 -0.073539642922444 0.071029400067003 0.132831489595660 0.029620610193443 0.007253753955705 0.021737493445334 0.052812147097510 0.010384565859372 0.023821227294522 -0.100826837920578 -0.018233124951725 0.133379242801930 -0.007576934095026 0.238731946323727 0.026272771953331 0.141381258932658 0.088916113793548 0.077015781635033 -0.071795758649960 0.083325816489339 -0.044050935255486 0.210312944666188 0.023351356609292 0.024857705500297 0.058005247883671 -0.051468376251647 0.065071991779080 0.009928543093790 0.178486990971332 -0.159816772960038 -0.033336064214852 0.123810685841316 0.097322743271043 0.059243940463636 0.153277054155730 0.046911541129580 -0.026629991261914 0.064443691441548 0.085630263451722 0.125852635944929 -0.082610080783930 0.101388768077784 0.253329479901359 0.117575854247363 0.053404005091840 -0.079565346777610 0.042760965200789 0.136170812216774 -0.027921410684142 0.192233239869216 0.061308444885024 0.047780383369379 -0.141962952199108 0.070964849074788 0.068499602400554 0.035547706674946 -0.016446666512270 0.114168709550742 0.083119775155892 0.016046047345143 0.078153528906189 0.034590972150116 0.236843688767945 0.121615111014373 0.202598079657711 0.101322890033421 -0.026353845066885 0.077334611462584 -0.110410887878651 0.015301059882190 0.002696397373063 0.106115610768032 0.046011364167508 -0.092137139596122 -0.100136428228855 0.101063196248274 0.045421417907869 -0.037712893437383 0.064730767347996 0.074304273465790 -0.015641361086257 0.014495377523822 0.074130813903272 0.071054129446246 0.188101579151423 -0.070531005429287 -0.197357277218831 -0.042085762530622 -0.072193486685963 0.039579790287599 0.168751367446462 0.062486857116523 0.104783198610482 -0.077846137416721 0.068847450406956 0.018479995625001 0.127088221103709 0.049063568486714 0.074604881656022 0.019828413476475 0.023013238723770 -0.093794310778717 -0.077630276697541 -0.005934084065968 -0.132513916146960 0.280458003448286 0.107096085514617 0.110202701478783 0.055799245583820 0.154972827415232 0.029288572774259 -0.028029189355310 0.166563502275010 0.139352721699577 -0.003227680485865 0.092307536746969 0.044628465033481 0.011106617068600 0.056854993055587 -0.103353827777603 -0.051244491867154 -0.003641447162489 -0.082934354347328 0.027310987385127 0.028795517546917 0.069726379082047 0.024478308260772 -0.060605702222971 -0.041857598970866 -0.074839868299323 0.033682354734708 0.121912765594050 -0.005744368110829 0.047751327675907 0.085537168571592 0.010478134318512 -0.074929454794266 0.117074980299777 -0.007495810603672 0.045066854896279 0.051750411914273 -0.184078952723987 0.071813214619771 0.029836136249268 0.111062124738538 -0.076207498236828 0.158423255189403 0.162934223660967 -0.119175713365683 0.149083998613871 -0.037784585955936 -0.066334913209330 0.088063014695421 -0.061760946322507 0.153575329113840 -0.150530889258690 -0.086213632991569 0.030551904174137 0.008191010430782 0.141976002577795 -0.007097108521552 0.019905028743511 0.192175637645415 0.169872158649725 0.268226861848701 0.139876891298771 -0.051331115135522 -0.068591233126118 -0.075759536093395 0.151977138302627 0.057019800040009 0.070642948715757 0.015812451047176 0.003949005195305 -0.021068278842565 0.032611146765749 -0.028345830655207 -0.009675871189150 0.151658436086321 0.052936018042389 0.119074945090367 -0.012637420253493 0.076451033999310 0.119062487730762 0.096405389408800 0.094131328201393 0.176149345842287 0.009800490099390 0.222307266004479 0.057057490336686 -0.025740266927136 -0.106164331456616 -0.087895190179064 0.009769804975656 0.039831868696056 -0.020936728755275 0.091934781635417 0.088563163906254 0.094706982418689 0.144316076923769 0.144638351868581 -0.043037110951265 0.080928638960810 0.195810836396013 -0.119917738141946 0.141579633425605 -0.028423388243472 0.064760243112251 0.059946955882220 -0.154738561425051 0.123942508150783 0.153902283653229 0.167512536271258 0.112389233868848 0.033657091209167 0.213730209674736 0.185275308126639 0.189232392810186 0.014063114877112 0.027288643072998 0.009116712955649 0.052715609658090 0.023776708773067 -0.005710470905144 0.020029860808419 0.068641198259201 0.169153951976172 -0.131943878294591 -0.106127783302893 -0.017520861482844 0.119349135629638 0.156401875474701 -0.018146296957897 0.076074517402814 -0.024209979598772 0.056887123640433 -0.093812234872412 -0.295175991039565 0.040298099099800 0.076631716649464 -0.124491127955153 0.036836605911040 0.072751846231034 -0.036066750422334 0.116412965874629 0.026524846982582 0.164931432639683 -0.042560872820377 0.031736606268493 0.075309021599349 0.133548316719136 -0.079211163726710 -0.057274261441550 -0.127548745425422 0.093071150309332 0.020106103046407 0.196319564042099 0.075556114471670 -0.120087177361157 0.120376262726337 0.099447800125815 -0.028352028564107 0.119012508065712 0.234921311684016 -0.045265465445733 0.115517416416086 -0.001421592846785 -0.194923852876526 0.190124377919848 0.023588152917451 0.088264744416479 0.242071595443171 0.071579490223673 0.099576771010949 -0.049029618700910 -0.079201421806632 -0.162746242974848 0.016502417777084 0.056360822283848 0.145824303733365 -0.029450619765188 0.074988368966804 0.086472103110096 0.061777408141547 0.182546976279388 0.109293132005926 0.085849774771330 0.233084706816201 -0.029945952946326 0.044488364312229 0.060592718290262 0.091254740078183 0.056587144981668 0.045555979707394 0.127667691627860 0.102648396629275 0.113739904963873 0.038319941616052 -0.092918012239700 0.211210246535519 -0.094074092738241 0.036980612589792 -0.162622016286161 -0.063356834665766 -0.079559562989440 0.175615181103552 0.063150767861093 -0.064442681130884 0.037122356804060 -0.004394576302093 -0.059839100600921 -0.163878901654645 0.136840381485174 0.033889781939269 0.003297478444466 0.015841320826784 0.033309938371830 0.053332199077366 0.075372995851570 0.074902329387271 0.104064658906952 0.054006988571690 -0.062917160854481 0.057357864027154 0.217682543435143 0.014122552593078 0.182487271185028 0.031304642232967 -0.027579647499644 -0.114871370245228 0.029696242444469 -0.053168575603126 0.112335819521239 0.164999601313590 -0.025940251100610 -0.061588190409457 0.013620560729713 -0.078703214514942 0.147215126044321 0.044717429934205 0.164066410806857 0.021868097416329 0.044754827164276 0.043052003765223 0.109571435774626 0.043526568803578 -0.012826605000529 0.043609953892256 0.005977217014999 0.218891185529083 -0.121320796703117 0.127127751298341 0.077798126052388 -0.032253386125612 -0.013449694361847 0.005864714772062 -0.104337908652225 0.018740465940668 -0.027561590043161 0.092529603857728 -0.111001335306173 0.009145770173268 0.131685501802146 0.137711574054736 -0.061928961457794 0.167799905149387 0.203423764948893 0.253722691849858 0.117512952351533 -0.034460851416456 0.048834375527000 0.157558043021766 0.054264346677751 0.068649358177203 -0.178245920609627 -0.100465447719344 0.338770787938008 0.099021823957210 0.123031854283111 -0.199589190324721 0.259060774016663 0.137279030529997 0.084642613597781 -0.090287939308140 -0.012699207493373 0.082495220049782 0.189398488157930 0.281937947568673 0.127768506893309 -0.040085149471062 0.046121113097910 0.114414629750585 -0.159164086353448 0.121119465880104 0.076148763517488 -0.080867184833364 0.063833641055045 0.099695258948694 -0.053652452714057 -0.087744899511058 -0.058304047925068 0.011607753372376 0.128034532339454 -0.017102079728924 -0.060127479370861 0.130895086108003 -0.062609829720420 0.002633013903611 -0.007821642005826 0.141965284021042 0.088028987643419 0.097777828846111 0.110754573436252 0.053913016477699 0.209102687111512 0.180199149050860 0.131251825193967 0.187283504633092 0.106917243695758 0.125955657503587 0.036259777959737 0.054319751328484 0.063135302189146 -0.065032527199432 0.106707367339079 0.049801694176230 0.203809667298322 0.032843053968836 -0.012964386886769 0.191156510709618 0.015813626479552 0.031046680140671 0.247136128552922 0.084602336961058 -0.107867052959475 0.045212539004751 0.078363224881943 0.023849275629330 0.040799215544696 0.034399815381470 0.173460527116349 -0.031136039648476 0.058935600399615 0.025752766601911 0.035113866254069 -0.109056982280266 0.137441768644690 0.014412274579718 0.209495153388923 0.242982503481823 0.018825091554204 0.118641146351945 0.168949074682235 -0.149153012569856 0.030659311623978 0.076264539519634 0.059807445062059 0.100049224393412 -0.093040519958700 0.047782175004288 0.081485551894289 0.025335941552423 -0.031750743447262 -0.062082706942964 -0.108937359560512 0.094609034030544 0.111988040159432 -0.002530841485517 0.014562724806933 0.136662994344304 -0.045055726005818 0.234218980112917 0.106473771563912 0.014446785057734 0.099271051178785 0.134690054195027 -0.036962477309989 -0.052119279732575 0.008621106169498 -0.010265454870336 -0.004236719638661 0.063034129027865 0.017195371764242 -0.020871984005335 0.077841315783450 -0.159414355149821 
0.206185452438489 0.188450332409374 -0.003987711350838 0.077774433288530 0.121713245741179 0.159486377287995 0.078804516633275 0.026168304383195 0.095659375846800 0.061053826931981 0.078478203129683 -0.016964168955537 -0.198718726770169 0.032045248078395 -0.046867985596511 0.193376885396880 0.016359414693564 -0.079862466017661 -0.029826742837605 0.123443755425144 -0.017234745747607 0.095521648488164 0.107764477284743 0.101532121364042 0.238497060096041 0.097693673792238 0.161484451207066 0.058303703063852 0.050960197758581 -0.022145800215379 0.019025640049617 -0.099067701417431 0.017969976170397 -0.016244515499084 0.100579347665251 -0.054230370899925 0.026374309121749 -0.056194400109903 -0.010598710655130 0.049025487513708 0.177612123799527 0.091549254511958 0.173438047250059 0.036130119986041 0.002966118908941 0.089497484486988 0.133691080892780 -0.141415013740857 0.045327010741483 0.068418368933679 -0.108031621741843 0.042203619186036 0.067065786287390 -0.010880354821063 0.003431170747224 -0.019034438412528 -0.088139994086939 -0.042443284539394 0.084682324805158 0.101293599149419 0.036556767748473 0.207871084325723 -0.011512028487424 0.069806081959579 0.110623117564669 0.056179631381264 0.035701724888699 0.106215113078833 0.079498482995935 -0.049194746411178 0.125260835998230 -0.082332911175146 -0.017648166614129 0.112744293548008 0.025406736637718 0.130721513633596 -0.073052822571886 -0.082768967372360 -0.168307054207524 0.073624516560454 0.145858616962147 0.086879576053538 0.059993834948576 0.099921961838420 -0.164457787694216 0.160614333882039 -0.040969263924589 -0.026264087561221 -0.004230661989091 0.092290640314755 -0.022487354364128 0.188242593853379 0.121565619646801 -0.190564701453917 -0.101185637678785 -0.064844154788354 0.044410829412488 -0.052002848984880 -0.004408382010179 0.166040174813488 0.368521756501098 0.117577983314981 0.054036931450379 0.021962079033441 0.154897716979418 -0.084674289801837 -0.053709642623613 0.025033596787201 0.110909492000126 -0.012873085655572 0.039565211523391 0.159353580031678 -0.079978474853205 -0.028206459699239 0.268291519983953 0.034897400454968 0.157878627643597 0.077052838523245 -0.114045657635999 -0.045306883093068 0.037806594204002 0.010201783174114 0.249529946179760 -0.245584812545362 0.081951567700326 -0.159525261365630 0.006149889615905 0.077177444060552 0.087500051680743 -0.012577763568345 -0.011929299815969 0.078923270340588 0.069467148680584 0.022065411282851 0.019074983698758 0.065789697393618 0.069171182250795 -0.050191849308750 0.166575983425996 -0.027177482779326 -0.020472417113302 -0.063094853549884 -0.059270847323585 0.045287318940875 0.082031053718097 0.170785788685503 0.073933403801044 0.023694933157258 -0.093878707992750 0.065193937666800 -0.000324501927490 0.156382316690475 0.219138692873118 0.078966837615665 0.197368919000070 -0.347562172964179 -0.143977160509190 0.028853318545683 0.065969349753030 0.162625263467520 -0.121512117817426 -0.102077520839650 0.066292761580644 0.021942209812136 0.021554918544355 -0.003700186145168 0.007416610374341 -0.153340826633139 0.134750561063243 -0.058497852460903 -0.156293242342051 0.104792513743298 0.082185127520461 -0.046635968318280 0.013552503837759 0.026732001640944 0.043107084579673 0.075864461856101 -0.020885903026709 0.134444587061688 -0.176005038460713 0.282579337029985 0.134261894521326 0.003008951633606 0.045900179263096 0.128449913337322 0.022931684534080 0.030569405615591 -0.009889639566542 0.007547647082302 0.061085254051791 -0.020005689959935 0.085224457981943 0.044964560065861 0.038878905631544 0.148267421868423 0.063264611234734 0.077634676349614 0.054822033915132 0.007767343729984 0.012223288648702 -0.016569100501557 0.024113765241501 0.122880915006983 0.201973904953116 -0.071264005999244 0.007018328951234 -0.020713931547267 0.148642701273760 0.022188630616673 0.237304628814852 0.038481829364948 0.075314192446432 0.029757690160667 0.045825923478360 0.018837541722846 0.054363913477234 0.191241882669455 -0.054285725512871 0.158126807906711 -0.087679718788248 0.098502290549670 -0.227808620017411 -0.153796399460827 0.132543225697534 0.079199868914592 0.120018168783366 0.068443270219655 0.056700128000564 0.015130623033806 -0.032452128429811 -0.012314176339155 0.097579423192571 0.037292890638599 -0.081801432740749 -0.034684063517566 0.185298957587216 0.154999010416730 -0.002254627135136 0.158055540687737 0.112785589172470 0.019715233278519 -0.198215501766413 0.019807625725369 -0.015050398766880 0.148098648350755 -0.053779494295378 0.127829499516864 0.065389257221586 0.087409481514086 0.109718883209002 0.157379043979437 0.049423887826169 -0.001768441738120 0.033800405668779 0.166659840480731 -0.097816323912952 -0.035111229696581 -0.149440443209727 0.100433024301437 0.210548754758842 -0.150517507412481 0.079449939461481 -0.042519150318822 0.141440753520350 0.054698091168957 -0.085709946134189 0.031378419043603 -0.141576672782875 -0.090344928772874 -0.079959124631175 -0.050985195167397 0.104830135913856 0.206172688732429 0.007226982133291 -0.117384867284774 0.117942013990432 0.171058027894267 0.052742115002731 0.140355014918298 0.048617511349927 0.047119008158772 0.072277948834996 0.135589354051146 0.103227296357074 0.066645451961398 0.044141602155969 0.137100865628208 0.066362089469647 0.114042326709886 0.064658179489279 -0.043426984168751 0.096297302413871 0.061806887232403 0.042568540883839 0.068512726323769 0.045923284562088 -0.121927189207631 0.032112283635592 -0.157307571229051 -0.021933393661941 0.144940118758440 0.060957271215807 -0.028286971592365 -0.071250216348927 0.048492257378932 -0.068763147612955 0.020291495311404 0.000960962485530 0.147674233054557 0.143722472879555 0.117903228783368 -0.145751630769535 -0.166870205552847 0.166035815505807 0.102554558115492 -0.063973042626142 0.010852351291249 0.118096645202674 -0.095242779779348 0.040498179153197 -0.000060502373595 -0.073555108565636 -0.035380763570834 0.129522421487432 0.125831430071919 -0.095709379490131 0.095849451476598 0.016414898523008 0.133628232932741 0.012956758900043 -0.003344186465961 0.048225146836587 -0.020233949694926 0.130859993267783 0.044378038108304 0.138221883197301 0.007485994589248 0.143795719416085 0.050507923851745 -0.031689131171649 0.040280405338665 0.031896812426804 -0.119531312985223 -0.068476461328804 0.108148106805294 -0.251398385122653 0.180190253573744 0.146492475032024 0.157595739668060 -0.156699513523452 0.015962924650986 -0.035362290766951 -0.012034669346208 0.023856289482930 0.019000107541923 0.151139389465941 0.150075077229356 0.110288992427135 0.124726048935072 0.168002924794739 -0.014503018614887 0.240984792688093 0.013370173362039 0.071922979146338 0.032785410573773 0.092216377974563 0.052856431549763 0.069839347794482 -0.111690514462222 0.112783884994246 0.040996683147956 -0.034454896577235 -0.047965024507236 0.077662075248946 0.027437591322471 0.013914777143942 -0.140449637626035 0.043186179300629 -0.038576501790735 0.153021999631854 0.001438710594967 0.332742328328093 -0.028886411988393 0.027437343577544 0.013023762784697 -0.052394144980280 0.154449707145033 -0.018133706732369 0.060835205947234 -0.004955251016261 -0.067013124827650 0.010135538733952 -0.009291984780191 0.089178823354901 -0.128092790347518 0.132789245756509 0.064233431602478 0.262493659912898 -0.013996909669723 0.004633898078883 0.268753614229135 -0.138290810596274 -0.043111682472985 0.074228632439819 0.015392289577316 -0.090758157480854 -0.147010199973123 0.005566963660192 0.078082866431491 -0.041527507343391 -0.035994565950285 0.160410876481043 0.053410106597955 -0.029186965591446 0.256924509406803 0.077404203568576 0.082724527937710 0.033030532735077 0.004370153144113 -0.004098516513117 0.130848245221296 0.070853775968746 0.019670499516383 0.014274565144748 0.057353883209337 0.092421953936733 0.050724708403168 0.172534680591085 0.024546230339999 0.153261264929395 -0.115413465152784 0.279873379259114 0.150939120724625 0.113462566234545 0.027977482191986 0.014961895799341 0.035646199726790 0.008542803393530 0.007020560323125 -0.028422640831757 0.096200242672208 -0.047084690800224 0.142385250080321 0.044513930968213 -0.173887138761543 0.117583402499070 0.027567115070476 -0.059096226526162 0.062205560694679 0.008632908211191 0.005026936604375 0.023234176836721 0.147064267702800 0.153261916678260 0.077072248748131 -0.034938982533079 -0.019631267155526 0.067395271018201 -0.058646685480826 0.164312781328768 0.059291294563607 0.000458774890064 0.129307315615725 0.086414191526020 -0.133173288965158 0.075892361554513 0.197601763219059 0.119962084482659 0.105772424204170 0.001844811022253 -0.141078057588911 0.033797936352024 0.151354535568566 0.008604502300623 -0.028217534424166 0.137711888644315 0.064373280269518 0.085794836447120 0.077273312531342 -0.053190080656986 0.025769892266570 -0.071082675654186 0.291173510583815 -0.024307939511248 0.220090052924334 0.159336301614347 0.143032422315316 0.036490191785599 0.064937546767171 0.142137695884725 0.045454186859465 0.058638865389158 -0.080553759049209 -0.075544537026939 0.034692637766442 0.165006480226461 0.139873101588558 0.126750049085716 0.031066177043827 0.113655080367817 0.029509919981856 0.022140823133890 -0.150811896255275 0.082728201643247 0.003277848938087 -0.010316794833840 0.209354402869631 0.211200502296017 0.082533057634212 0.012451453684903 0.192589319756515 -0.015727554454719 0.064505985636763 0.203726095342702 0.115226555131172 0.010605207770717 0.141027821100281 0.088006949505280 -0.072491467574499 0.007007755580631 0.154589547952870 0.181809171368832 -0.084511897008740 -0.069375014756496 0.072473063649573 0.044294467765846 0.109774126390544 -0.039203217552250 0.100945838750238 0.059419746071782 0.022136579091515 0.154977768285346 0.271778344921343 -0.232508642299067 0.152833110251163 -0.178102058179710 0.013111426943654 -0.095962388759721 -0.071148493238667 -0.211904431035066 0.021213837031831 0.187611394169596 -0.007315636427330 0.112327944967796 0.061602099310494 -0.136450785905121 0.072389571725434 0.014479436829617 0.005197843647680 0.138301007362006 0.002687960587898 -0.002188296159634 0.086547492940402 0.239283399564081 -0.002108550421535 0.021782547264961 0.148143855175462 0.050604769231958 0.152813787478271 0.074395564278103 0.012526850577654 -0.060756085576747 0.308931719523356 0.037231183376571 -0.029951859712578 -0.081925549209389 0.024358234146868 0.096309754581675 0.045653757772276 0.009168639521967 0.015085805154909 -0.104506854190528 -0.009625231665162 0.129759528673613 0.145172914616856 0.153323510759312 -0.006842783349440 0.055236043744061 0.206062826854534 0.036380637421597 0.279958871537638 -0.024668411831403 -0.020161990178279 -0.114159100203381 -0.037850815942557 0.011447459335594 -0.069360544492500 0.154977732413670 -0.033191283690009 -0.052072209433204 0.103216765153567 -0.048202020658888 0.096278247914105 0.237145267893343 0.068192646568153 -0.076674048119301 -0.115440169594171 0.125860188890186 -0.011695158105906 0.068347544331560 0.112532062982581 0.034786239801591 0.024832522238968 -0.048114216800993 0.174571694296364 -0.112855032560292 -0.003879953473332 -0.014764083388775 0.050256967346918 0.230423302291753 0.204921813850474 -0.005220974471558 0.348854596785467 0.004549842907138 0.047113258399577 -0.055283310839816 0.088359810259234 0.068333528417572 0.144268985060797 -0.022648903841973 0.123633758993593 -0.131514467531241 0.150417600084144 0.112965567823995 0.042564346725478 0.169732156264359 0.282982083183477 0.014401009353131 -0.000651884821690 0.021819064547017 0.136105756840968 0.176854931017014 0.344384274300312 0.100318479648084 -0.136869540690831 0.065775393343429 0.001218401767798 -0.067431793449744 0.018101640661551 -0.008434301653424 0.113504086859470 0.145289487746112 0.116837751356873 -0.070702864761626 0.141077942252876 -0.038674417453972 0.027350500622761 0.072290676812890 -0.016575272081172 0.077161224816333 -0.099264965942195 0.084052199596238 0.082464171188170 0.132354283931197 -0.060632592536492 0.178131305372766 0.030680782639250 -0.093893369039584 0.084496512387713 0.010786342718196 0.149149677228688 -0.033443035614086 -0.085868452367304 -0.041550739832409 0.032660565952057 0.079029400379738 0.081933595190373 0.043161760576797 -0.018401530293045 0.003353058392756 -0.003728013078457 0.098486436405181 0.187496002955097 0.161466344298194 -0.017726837418091 -0.046066335303496 -0.061024913717947 0.036295543327044 0.106350629431673 0.230487663039515 -0.031836150068241 0.009900624967140 0.046973017372577 0.235707630992736 0.078784615671960 -0.076882774209581 -0.030309753972278 0.121164609132017 -0.036675002885185 0.198715105364097 0.090771709923999 0.052761802687499 -0.021903563258270 0.040898569814698 -0.055590593342725 -0.039944012189695 0.067445541275343 0.172395196528183 -0.099106764725018 0.150878697237317 0.225202511666032 0.194869667078029 0.034245771338533 0.134226542909817 -0.030793906348276 0.203333896490757 0.005744634742120 -0.110657736452433 -0.066309663374249 0.019794587040980 0.039230031069309 0.248819119949763 -0.001150011605353 -0.148815914560428 0.112405127482353 0.153533843756388 0.098690813742533 0.218841545015835 0.170445871187735 0.217370716065945 -0.019006239942238 0.092332025859106 -0.065625531916161 -0.146797841925007 -0.013969602446571 -0.078189902109409 0.166694944124234 -0.040108578918015 -0.018038042837655 0.038153145644812 0.127653194584623 -0.053283120130155 0.033547882089990 0.144534072726829 0.055648041022332 0.005721697784052 0.014388471917037 0.026625332771320 0.147610758979528 -0.003458964047932 0.087322947854499 0.091575733718888 0.245568454594771 0.015192159677350 0.145679175184326 0.026472434206762 0.107250575008380 -0.073205223278142 -0.048032163202323 0.227907409937207 0.099586899947304 0.078439712658764 0.055248175271138 0.180655234186182 0.115369239221566 0.016104981010425 0.184595534882324 0.075755646510782 0.121123215784894 0.039211028980695 0.065244952843861 -0.054114277857893 0.033640245000493 0.162175900781757 0.117714769256961 0.121430501546779 0.078003168706476 0.175231713577962 0.116649811832760 0.001930961426736 0.017720638512519 -0.095717893062900 -0.055412354646234 0.068266328829230 0.091533011346297 0.126588933492719 -0.045445686550606 0.068363498468376 -0.023807215783284 -0.020774507036594 -0.037072406864185 0.051726585904738 0.121796648339400 
0.032148560325152 0.095997077469387 0.093887682163879 0.134711810584487 0.115136491692548 0.117679553925112 0.238796981891235 -0.001803247436908 0.056553757189533 0.128062240507836 -0.086651634956483 0.040144389865098 0.039802425633289 0.064642958725243 0.004129743760467 -0.006957147980206 -0.020893697118028 0.001020460536973 0.152059280660548 0.017821921109514 0.069675283620237 0.023609377585342 -0.051966979528886 0.174303668605116 0.074892662293554 -0.061370839306133 0.021742996645386 0.043720675793101 0.026834313076259 0.210810343089913 0.092965767486121 0.094910998358777 0.089660831151524 0.092067050443132 -0.001548174824834 0.047393835876163 -0.083585042164497 0.109503379953660 -0.046830550611521 0.064167938627913 -0.092513663289189 -0.059518651780912 0.234941087453178 -0.007362166475299 0.015738681007785 0.061264274343431 -0.142104412918866 0.028291756026187 -0.033239661936424 0.035951809468061 0.087370003059284 0.052798639450523 -0.032776612932364 0.033975570086729 0.201267391922554 0.047291028793037 0.151440329819696 -0.016900572400964 -0.031554401965335 -0.016680971975559 0.140229485180115 -0.053905824370907 0.117571842618330 0.010561611688266 0.078167638046073 -0.014299371018230 0.046432093748705 0.162082020721540 -0.077748639747273 0.174549326781591 -0.052643124520081 -0.031455758883937 -0.083102665082935 0.037432671784365 0.006409899023446 0.237932193944142 0.213831736801041 0.099961417995119 0.025011871627824 -0.056083293593668 0.041151797590150 -0.052000949057924 -0.029552385901078 -0.079899081525977 0.019345581821828 -0.090855328239500 0.027236225146504 0.093492056521192 0.093870093177797 -0.010396941167632 0.005399571186088 0.188671043945873 0.076313656203254 -0.190496757769176 0.146980323420198 -0.046126066427177 0.112503948619006 0.198675201421735 -0.023450313560740 0.104191510951538 0.022229442003174 0.015949261969238 0.084030044517770 -0.044639089669653 0.078431044624165 0.057539639687904 0.157585589439169 0.155062699069663 0.222060764354920 0.000132235500234 0.023462618650210 0.047063494519434 -0.089293551917058 0.140501267008325 0.045575722808485 0.160145191878753 0.049969359708738 0.183721536400666 0.104623890178531 0.134389865595167 0.279984049327152 -0.003737188402136 0.017755829411823 0.028378069225818 -0.130980174481206 -0.000039971466307 -0.006493614706084 0.053243447682974 -0.008531118865661 0.176794049579501 0.051219248722246 0.042180658158231 0.037329839208041 0.078210715909436 0.108007259446319 0.154828648062566 0.006054066272431 0.155278512751253 0.016371553742533 0.007036478918800 0.117451217751725 0.050229595494735 0.045588589503518 0.036245884225456 0.069960834938335 -0.003154677413149 0.020411994667404 0.074335551853307 -0.059761233945065 0.061677236976700 0.299538477848348 0.037529021811690 0.041110796345144 -0.087627795689670 0.038649750710146 -0.011439426194956 -0.038087752306858 -0.100604330151042 0.002806006568576 -0.036868645040467 0.080928605140205 0.046875280550569 0.203859788969977 -0.048384209274010 0.100467696604923 -0.107782232499782 0.122442253436961 -0.049215728778399 -0.064407779081929 0.064061926242873 0.137185761367871 0.061212602987183 -0.021912850972611 -0.016280676762007 0.122578654714458 0.042581273779306 -0.025324530086831 0.100822554085705 0.164153112232617 0.097761854408288 0.101171264357499 -0.209146946425697 -0.084567579837718 0.224760915252429 0.192830745377183 -0.080674294068223 0.125186406771806 -0.084503939726888 0.122671824103235 0.151972893871604 0.033633826305284 0.007469664749429 -0.132572134166411 0.044565260611207 0.009589472608692 0.066499828759122 -0.105548352433428 -0.053713201042036 -0.047055775735708 0.125777889032687 0.141112918901104 -0.081962824653604 0.073005555721433 0.113006874288152 -0.059703779635576 0.088351519932343 -0.005328552387520 0.079084806455423 -0.123459966469280 0.115365115650730 0.050739019375656 0.017278095927394 -0.000051574485052 -0.148234415947789 -0.052896109108430 0.029381990762358 0.040634529822078 0.081419593611098 -0.000572301608315 0.030002009788606 0.009540103418080 0.003091167007672 0.010272748455060 0.097750022875441 -0.111854224192405 0.025479213363356 0.030143099494417 0.029337798389794 -0.071073256407114 0.062948490208388 0.035296725283483 0.243496804525387 0.125817758599426 -0.132163615768951 0.014447811900349 -0.028183451828109 -0.131937389955444 0.125688759253540 0.062324414540851 0.081723084280064 0.065138281081692 -0.036025753835416 -0.051724985173373 -0.008847775338579 -0.131661977793457 -0.091672919515741 0.277656004497075 0.128731574258751 0.021046902008794 0.162689383602933 0.233876595483167 0.175769998772517 0.212110209895306 0.159376730078270 0.083511260719233 0.082636929367365 -0.031260777986777 0.163092017565140 0.108349051328863 0.010179529122009 0.068056371658771 -0.177412336295114 -0.031896233668763 0.035289659489792 -0.071113619540453 0.169727940764131 0.113609584377212 0.167362750226174 -0.048173423481457 -0.005423111002165 0.102622800087395 0.087172440356985 0.101025372323429 0.044960972995649 0.045067358622608 0.139891613352105 -0.006399269890985 0.116082537209408 -0.161335108954643 0.115665301873191 -0.034359331580886 0.056001239112459 -0.204312060002112 -0.038190953500338 0.332805598348062 0.122584332015255 0.105510521042467 -0.147275566794437 0.035382393052966 0.122023248845600 0.136554631091719 0.009763276915005 0.126671793402812 0.096493425195274 0.014975459790957 0.081365464566135 0.041081352156154 -0.095599604940012 0.075913765464782 -0.280329123869811 -0.215495452197361 0.110511807402196 0.079041741020500 0.118293975393200 0.055590600249386 -0.043932989122585 0.024716810864715 0.069693842469893 0.179488140271498 0.207223983050885 0.025918573826576 -0.121789845335602 -0.042729467801561 0.202239469027614 0.094745390986576 -0.006926364521013 0.001622257775270 0.072377512165068 -0.148234929781639 0.028480305177399 0.023634824084533 0.062987738738188 0.061330365608621 0.052437330761678 0.092765743649420 0.126418859693259 0.196942223235028 -0.081993893728166 -0.058432349352360 0.057062425058075 0.133943778562008 -0.059198110549747 0.208609309896981 0.011539360886641 0.099309499852432 0.002827007939980 0.047427513109065 -0.119767931508026 0.042382456356790 0.073272250955882 0.054294588456114 0.080606340526111 0.216581075573576 -0.052253015305923 0.005116504351389 0.058506775039401 -0.081263644249105 0.103573171358700 0.086522217871397 0.157604652418429 0.208754547324294 0.055854179702909 0.120831266886024 -0.186584953289333 -0.033629247491680 0.131684107452550 -0.012965656408752 -0.092429421900213 -0.111666039264390 -0.030199655641110 -0.099955795058841 0.167167382582429 0.021806126573328 0.020316600915438 0.071145598103658 0.115218026851933 0.058931906189806 0.086737024711052 0.105007195487321 0.088238422878608 -0.037797458759108 0.124074713006082 -0.095617995487949 0.145979125510608 0.131054957124984 0.087170465968531 -0.165061552862964 -0.035031719567830 0.177850075983196 0.033671741824552 -0.007196663213358 0.197501041553221 0.056523657484096 -0.008227151820565 0.165206677359820 -0.057048964867260 0.028254694000429 0.004527477782676 0.094667693497929 -0.093332412508576 -0.079199859920366 -0.095762612207423 0.034652858752258 0.071988695276079 0.034089283574239 -0.072514149554939 0.102373802384625 -0.001502908338739 0.127035617363015 0.141548618289502 0.152527968827903 0.008893843874845 0.273027417189414 0.035821460917687 0.056400732879948 0.124496296263875 0.052097851509528 -0.088612432329763 0.026174070413983 0.198717443658432 0.026241806996535 0.061873121500612 0.127297707203678 0.104153230429483 0.072282851005088 0.174379041286878 0.101692076116697 0.016529534286860 0.001892545346746 -0.153218159959329 0.203488945489143 0.048487759171900 0.184946576097358 0.106080754053499 -0.030766720037588 0.002773981563283 -0.004011011572819 -0.040279658708824 -0.111093223303666 0.102301830954288 0.066543445854415 -0.087483160018078 0.078051296554162 0.032658778548139 0.044002855216542 -0.122909162113374 0.087604868260750 0.185940136168424 0.083693028260401 -0.008848915925052 -0.098578387280723 0.130678159377843 0.160529299212497 -0.083376091580227 0.156216333145114 0.013707402809895 0.024033968060064 0.170327780326734 0.156158143635152 0.040994818162671 0.203207166182853 0.063704301977665 0.264197728510720 -0.051351920557705 0.159559692147407 0.020850544720425 0.115023902556112 -0.015890509892015 0.156102350738257 -0.166484380602050 -0.140770575247163 0.083645398492121 0.074191340135757 -0.134616530470884 0.151364584832471 -0.046262801166779 0.173895426531885 -0.038009193654469 -0.121832239446963 0.239569061369501 0.112840564176579 -0.235359218014684 -0.018016056047991 0.054321046807570 0.063866048607913 0.246223563452512 0.011146725324934 0.151860175265446 -0.019144590820897 -0.079327635821450 -0.098821884199918 -0.135752473715282 -0.115324494853944 0.172755599007728 -0.101430909349998 0.011788684430454 0.088060456658073 -0.049157657463962 -0.109908314047721 0.036602762407891 0.188599222846106 -0.107125230458480 0.180591071626777 0.140078853335856 0.047037363175214 0.018486470960492 -0.065163127979585 -0.001775940485510 0.114049804253684 0.182357265992800 0.275076882764078 0.182461742157327 0.073942760687983 0.077780806897112 -0.127725939924832 0.124391032715269 -0.009474389228762 0.110968696616316 -0.043341535419777 -0.015714303962046 0.010706586340810 0.002938855142523 0.188330460521035 -0.012110699103013 0.094991418326314 0.054697467973467 0.180704053042668 0.118830569544825 0.092269771820868 -0.030066581995222 0.253179470149094 0.025608256808485 -0.079606519577754 0.009362643386922 0.006985654430596 0.137100448550049 -0.244870964180124 -0.011462636994874 0.039360777833455 -0.034340547301844 0.121832724398563 0.027074308652545 0.119337146834999 0.054753955437752 -0.073124290027039 -0.012679528233832 -0.148410967538654 0.190705421818719 0.034762865318021 -0.014441022546383 0.103025488883849 0.010652320904188 -0.035980075091507 -0.119490072687827 0.070684655618324 0.068922142479334 0.119853905470560 0.166712689501226 0.036659565242238 -0.119468809737878 0.040982374876527 0.037830503896583 -0.008609206738709 0.021608777724441 0.082365621354914 0.165022424783367 -0.018290623434370 0.125322143082354 0.134353132920172 0.136072849154622 0.054806493687252 0.062978259801337 0.019457751255495 0.138480132948437 -0.008008139961689 -0.018813315984867 0.026092351922158 0.087571108176542 0.020504317803521 0.009857739982604 -0.041039206633308 0.048118430024363 -0.195859134256492 0.124526048823324 -0.026756499712486 0.031227883526135 0.266690793461149 0.322362174241864 0.033035690956843 0.010731806689370 0.108368645424145 0.188186770767456 0.093173667335841 0.002189718449810 -0.054306820166815 0.029266251354558 0.072272355742559 -0.070514712100246 -0.041009652428947 0.049801584648380 0.031364616485818 0.046414640788177 0.034708000557922 0.171271740564767 -0.027705769829191 -0.042282947481548 0.007341702777702 0.053233431153526 -0.072520679052308 0.120365908722611 0.151427897501363 0.173614465493605 0.135590737345652 -0.036315132118080 -0.023794099288837 0.038203891131239 0.033530071053414 0.094028531916240 -0.080873781658198 0.206031301944965 -0.001940111387813 0.332458396824279 -0.139104816193808 -0.028269447684947 0.233865504474258 0.115820392966600 0.064923547201082 0.105841151258040 -0.012480463105053 -0.118987904452916 0.064227685468057 -0.055964223378124 -0.178480119228505 -0.006029336687179 -0.051244820028673 0.271105560072184 0.108632606225929 0.178723284407160 0.098839618791847 0.107209752734255 -0.084250860069900 -0.137902529452072 0.049019068994539 0.112477002238077 0.177552406092816 -0.123674633323238 -0.256308170812153 0.078854043022981 -0.069441517374298 0.212072992298423 0.152877376234521 0.116570907802349 -0.178765158836673 -0.102302839474814 0.014533401965526 0.095665372430616 -0.180560543104942 -0.020900983357032 -0.040940434153790 -0.054372193837391 0.047540402031133 0.097191874251586 -0.019984854623767 -0.085784019767763 0.107804961303687 0.061487610647622 -0.011375138574042 -0.067916138401697 -0.072420171461971 0.030665509207072 0.126221206271286 -0.050993310106183 0.174572132462276 0.061204926137679 0.276903609241627 0.128262617799465 0.074781808108429 0.041881790040950 -0.105819705254357 0.071874331957160 -0.049117146871259 -0.013766463412241 -0.074363972314915 0.167875261181127 0.024220689632341 0.158927846767342 0.179994049630729 0.168635887380936 0.212861056672669 0.048486782423437 -0.014836510768012 0.281941477150532 0.298253253871707 0.134739929604566 -0.012504455565691 0.101589309846797 -0.032149517070515 -0.053935847519763 -0.085935873475591 0.025046107252292 0.005242967911572 -0.046665569722557 0.013846015985616 -0.051015866724020 -0.088476152169908 -0.106241229626544 0.054749265862237 0.045161747778962 0.021288133472802 0.058116001127627 0.044475949730037 -0.017905352203234 -0.041545600824337 -0.031871006005018 0.095640457688275 0.093035625466016 0.028170754802185 0.110914275426591 -0.015733818682058 0.101171965129782 0.062673732153831 -0.013602077180824 0.045779267012775 -0.116384656230305 0.131759654324099 0.078460278553960 0.318818205426027 -0.070239791782401 -0.012030901395720 -0.062498591232037 0.061080449686892 0.126736799437730 -0.010023502863446 -0.072235547469967 0.042665838081800 0.118513970970105 0.000971619771981 0.040500395940937 0.159251736544526 0.013560551857389 -0.002329952137291 -0.010408989581835 0.085901905937128 0.174554320671437 0.029528182903792 -0.015767894180266 -0.112893171587865 0.204914419132718 -0.077224182440983 0.108596529061385 0.145034019311202 0.010290101610060 0.061763151022935 0.128004050974113 0.052672914254862 -0.015689922713702 -0.074769269961828 -0.040853228666313 0.026072742888594 0.114624613212730 0.320964324801147 -0.018206497192015 -0.053698792994561 0.076257467806038 -0.024336698298300 0.117579138175385 -0.020612186216398 0.036193287627567 0.006201785662049 0.062941360772729 -0.065915078757356 0.024834026734076 0.003600429877677 -0.175546401702146 0.276732601068041 0.006288864006795 -0.045865181892831 0.012234411466389 -0.122787289026259 -0.034906073271680 0.187041004768859 -0.038193219704129 0.080090209847415 -0.030796743693903 0.150604312484895 0.154812934769235 -0.045041457919484 -0.158409994538456 0.137278234020088 0.073630528763202 0.012915629419282 -0.072923752978542 0.106051857572682 -0.157545409915427 
